Language model created by QuickLM on Mon Jun 30 12:11:54 EDT 2014
Copyright (c) 1996-2010 Carnegie Mellon University and Alexander I. Rudnicky

The model is in standard ARPA format, designed by Doug Paul while he was at MITRE.

The code that was used to produce this language model is available in Open Source.
Please visit http://www.speech.cs.cmu.edu/tools/ for more information

The (fixed) discount mass is 0.5. The backoffs are computed using the ratio method.
This model based on a corpus of 15 sentences and 33 words

\data\
ngram 1=33
ngram 2=47
ngram 3=41

\1-grams:
-0.9823 </s> -0.3010
-0.9823 <s> -0.2533
-2.1584 BACKWARD -0.2533
-2.1584 COMMANDS -0.2533
-2.1584 ENOUGH -0.2533
-2.1584 EYES -0.2533
-1.8573 FORWARD -0.2533
-1.8573 GO -0.2919
-2.1584 HAVE -0.2980
-2.1584 HEAD -0.2533
-2.1584 HI -0.2980
-2.1584 IN -0.2980
-2.1584 IS -0.2980
-2.1584 LEARN -0.2980
-2.1584 LEARNT -0.2533
-1.8573 LEFT -0.2533
-2.1584 LITTLE -0.2980
-1.5563 MOVE -0.2857
-2.1584 OK -0.2980
-2.1584 REVERSE -0.2533
-1.6812 RIGHT -0.2499
-2.1584 ROBOT -0.2533
-1.8573 ROTATE -0.2857
-2.1584 SHOW -0.2980
-1.8573 SPIN -0.2857
-2.1584 STOP -0.2919
-2.1584 THAT -0.2980
-2.1584 THERE -0.2533
-2.1584 THIS -0.2980
-2.1584 US -0.2980
-2.1584 WHAT -0.2980
-2.1584 YOU -0.2980
-1.8573 YOUR -0.2950

\2-grams:
-1.1761 <s> GO 0.0000
-1.4771 <s> HI 0.0000
-1.4771 <s> LEARN 0.0000
-0.8751 <s> MOVE 0.0000
-1.4771 <s> OK 0.0000
-1.1761 <s> ROTATE 0.0000
-1.4771 <s> SHOW 0.0000
-1.1761 <s> SPIN 0.0000
-1.4771 <s> STOP 0.0000
-0.3010 BACKWARD </s> -0.3010
-0.3010 COMMANDS </s> -0.3010
-0.3010 ENOUGH </s> -0.3010
-0.3010 EYES </s> -0.3010
-0.3010 FORWARD </s> -0.3010
-0.6021 GO BACKWARD 0.0000
-0.6021 GO FORWARD 0.0000
-0.3010 HAVE LEARNT 0.0000
-0.3010 HEAD </s> -0.3010
-0.3010 HI LITTLE 0.0000
-0.3010 IN REVERSE 0.0000
-0.3010 IS ENOUGH 0.0000
-0.3010 LEARN THIS 0.0000
-0.3010 LEARNT </s> -0.3010
-0.3010 LEFT </s> -0.3010
-0.3010 LITTLE ROBOT 0.0000
-0.9031 MOVE FORWARD 0.0000
-0.9031 MOVE IN 0.0000
-0.6021 MOVE YOUR 0.0000
-0.3010 OK THAT 0.0000
-0.3010 REVERSE </s> -0.3010
-0.4771 RIGHT </s> -0.3010
-0.7782 RIGHT THERE 0.0000
-0.3010 ROBOT </s> -0.3010
-0.6021 ROTATE LEFT 0.0000
-0.6021 ROTATE RIGHT -0.1249
-0.3010 SHOW US 0.0000
-0.6021 SPIN LEFT 0.0000
-0.6021 SPIN RIGHT -0.1249
-0.3010 STOP RIGHT -0.2218
-0.3010 THAT IS 0.0000
-0.3010 THERE </s> -0.3010
-0.3010 THIS COMMANDS 0.0000
-0.3010 US WHAT 0.0000
-0.3010 WHAT YOU 0.0000
-0.3010 YOU HAVE 0.0000
-0.6021 YOUR EYES 0.0000
-0.6021 YOUR HEAD 0.0000

\3-grams:
-0.6021 <s> GO BACKWARD
-0.6021 <s> GO FORWARD
-0.3010 <s> HI LITTLE
-0.3010 <s> LEARN THIS
-0.9031 <s> MOVE FORWARD
-0.9031 <s> MOVE IN
-0.6021 <s> MOVE YOUR
-0.3010 <s> OK THAT
-0.6021 <s> ROTATE LEFT
-0.6021 <s> ROTATE RIGHT
-0.3010 <s> SHOW US
-0.6021 <s> SPIN LEFT
-0.6021 <s> SPIN RIGHT
-0.3010 <s> STOP RIGHT
-0.3010 GO BACKWARD </s>
-0.3010 GO FORWARD </s>
-0.3010 HAVE LEARNT </s>
-0.3010 HI LITTLE ROBOT
-0.3010 IN REVERSE </s>
-0.3010 IS ENOUGH </s>
-0.3010 LEARN THIS COMMANDS
-0.3010 LITTLE ROBOT </s>
-0.3010 MOVE FORWARD </s>
-0.3010 MOVE IN REVERSE
-0.6021 MOVE YOUR EYES
-0.6021 MOVE YOUR HEAD
-0.3010 OK THAT IS
-0.3010 RIGHT THERE </s>
-0.3010 ROTATE LEFT </s>
-0.3010 ROTATE RIGHT </s>
-0.3010 SHOW US WHAT
-0.3010 SPIN LEFT </s>
-0.3010 SPIN RIGHT </s>
-0.3010 STOP RIGHT THERE
-0.3010 THAT IS ENOUGH
-0.3010 THIS COMMANDS </s>
-0.3010 US WHAT YOU
-0.3010 WHAT YOU HAVE
-0.3010 YOU HAVE LEARNT
-0.3010 YOUR EYES </s>
-0.3010 YOUR HEAD </s>

\end\
